<?xml version="1.0"?>
<opencv_storage>
<cascade>
  <stageType>BOOST</stageType>
  <featureType>HAAR</featureType>
  <height>40</height>
  <width>80</width>
  <stageParams>
    <boostType>GAB</boostType>
    <minHitRate>9.9900001287460327e-01</minHitRate>
    <maxFalseAlarm>5.0000000000000000e-01</maxFalseAlarm>
    <weightTrimRate>9.4999999999999996e-01</weightTrimRate>
    <maxDepth>1</maxDepth>
    <maxWeakCount>100</maxWeakCount></stageParams>
  <featureParams>
    <maxCatCount>0</maxCatCount>
    <featSize>1</featSize>
    <mode>ALL</mode></featureParams>
  <stageNum>11</stageNum>
  <stages>
    <!-- stage 0 -->
    <_>
      <maxWeakCount>2</maxWeakCount>
      <stageThreshold>-1.5511915087699890e-01</stageThreshold>
      <weakClassifiers>
        <_>
          <internalNodes>
            0 -1 7 -2.0770736038684845e-02</internalNodes>
          <leafValues>
            9.5348834991455078e-01 -9.8429322242736816e-01</leafValues></_>
        <_>
          <internalNodes>
            0 -1 26 -2.3596137762069702e-02</internalNodes>
          <leafValues>
            8.2917404174804688e-01 -9.9462759494781494e-01</leafValues></_></weakClassifiers></_>
    <!-- stage 1 -->
    <_>
      <maxWeakCount>2</maxWeakCount>
      <stageThreshold>-3.7879046797752380e-01</stageThreshold>
      <weakClassifiers>
        <_>
          <internalNodes>
            0 -1 1 -8.8231954723596573e-03</internalNodes>
          <leafValues>
            5.2212387323379517e-01 -9.9436616897583008e-01</leafValues></_>
        <_>
          <internalNodes>
            0 -1 5 -1.4083404093980789e-03</internalNodes>
          <leafValues>
            7.7243214845657349e-01 -9.0091437101364136e-01</leafValues></_></weakClassifiers></_>
    <!-- stage 2 -->
    <_>
      <maxWeakCount>3</maxWeakCount>
      <stageThreshold>-1.2677569389343262e+00</stageThreshold>
      <weakClassifiers>
        <_>
          <internalNodes>
            0 -1 22 -5.1401061937212944e-03</internalNodes>
          <leafValues>
            3.8333332538604736e-01 -9.7701150178909302e-01</leafValues></_>
        <_>
          <internalNodes>
            0 -1 27 -1.8517535645514727e-03</internalNodes>
          <leafValues>
            7.1292573213577271e-01 -8.3701872825622559e-01</leafValues></_>
        <_>
          <internalNodes>
            0 -1 14 -1.7341668717563152e-03</internalNodes>
          <leafValues>
            7.5378006696701050e-01 -8.1407159566879272e-01</leafValues></_></weakClassifiers></_>
    <!-- stage 3 -->
    <_>
      <maxWeakCount>3</maxWeakCount>
      <stageThreshold>-1.0913943052291870e+00</stageThreshold>
      <weakClassifiers>
        <_>
          <internalNodes>
            0 -1 15 -1.3982534874230623e-03</internalNodes>
          <leafValues>
            7.8378379344940186e-01 -8.9340102672576904e-01</leafValues></_>
        <_>
          <internalNodes>
            0 -1 0 1.1919766664505005e-01</internalNodes>
          <leafValues>
            -8.2218658924102783e-01 7.8806704282760620e-01</leafValues></_>
        <_>
          <internalNodes>
            0 -1 21 -9.7163021564483643e-04</internalNodes>
          <leafValues>
            6.2419331073760986e-01 -8.5035926103591919e-01</leafValues></_></weakClassifiers></_>
    <!-- stage 4 -->
    <_>
      <maxWeakCount>3</maxWeakCount>
      <stageThreshold>-1.0634701251983643e+00</stageThreshold>
      <weakClassifiers>
        <_>
          <internalNodes>
            0 -1 18 -3.1769520137459040e-03</internalNodes>
          <leafValues>
            8.0327868461608887e-01 -8.4275186061859131e-01</leafValues></_>
        <_>
          <internalNodes>
            0 -1 25 -8.1656619906425476e-02</internalNodes>
          <leafValues>
            5.3355067968368530e-01 -9.2707502841949463e-01</leafValues></_>
        <_>
          <internalNodes>
            0 -1 16 4.5260069891810417e-03</internalNodes>
          <leafValues>
            -7.5426888465881348e-01 8.3144134283065796e-01</leafValues></_></weakClassifiers></_>
    <!-- stage 5 -->
    <_>
      <maxWeakCount>3</maxWeakCount>
      <stageThreshold>-1.3986178636550903e+00</stageThreshold>
      <weakClassifiers>
        <_>
          <internalNodes>
            0 -1 23 -2.9469709843397141e-03</internalNodes>
          <leafValues>
            5.0000000000000000e-01 -8.8947367668151855e-01</leafValues></_>
        <_>
          <internalNodes>
            0 -1 3 -7.9608097672462463e-02</internalNodes>
          <leafValues>
            3.9457106590270996e-01 -9.5907074213027954e-01</leafValues></_>
        <_>
          <internalNodes>
            0 -1 28 4.1960934177041054e-03</internalNodes>
          <leafValues>
            -8.8710874319076538e-01 4.4992652535438538e-01</leafValues></_></weakClassifiers></_>
    <!-- stage 6 -->
    <_>
      <maxWeakCount>3</maxWeakCount>
      <stageThreshold>-1.0281251668930054e+00</stageThreshold>
      <weakClassifiers>
        <_>
          <internalNodes>
            0 -1 8 2.1471092477440834e-03</internalNodes>
          <leafValues>
            -8.2168674468994141e-01 8.8679248094558716e-01</leafValues></_>
        <_>
          <internalNodes>
            0 -1 29 -1.9841087050735950e-03</internalNodes>
          <leafValues>
            6.4760762453079224e-01 -7.9855597019195557e-01</leafValues></_>
        <_>
          <internalNodes>
            0 -1 20 3.9237298071384430e-02</internalNodes>
          <leafValues>
            -8.1112736463546753e-01 5.9211760759353638e-01</leafValues></_></weakClassifiers></_>
    <!-- stage 7 -->
    <_>
      <maxWeakCount>3</maxWeakCount>
      <stageThreshold>-1.1582951545715332e+00</stageThreshold>
      <weakClassifiers>
        <_>
          <internalNodes>
            0 -1 11 -4.1585466824471951e-03</internalNodes>
          <leafValues>
            7.4603176116943359e-01 -8.4197533130645752e-01</leafValues></_>
        <_>
          <internalNodes>
            0 -1 4 2.1704530343413353e-02</internalNodes>
          <leafValues>
            -8.6936473846435547e-01 5.8230715990066528e-01</leafValues></_>
        <_>
          <internalNodes>
            0 -1 12 -1.8418671097606421e-03</internalNodes>
          <leafValues>
            5.5304485559463501e-01 -7.7400785684585571e-01</leafValues></_></weakClassifiers></_>
    <!-- stage 8 -->
    <_>
      <maxWeakCount>2</maxWeakCount>
      <stageThreshold>-5.2242362499237061e-01</stageThreshold>
      <weakClassifiers>
        <_>
          <internalNodes>
            0 -1 2 -1.2862629955634475e-03</internalNodes>
          <leafValues>
            3.5849055647850037e-01 -9.1712707281112671e-01</leafValues></_>
        <_>
          <internalNodes>
            0 -1 13 -1.0953411692753434e-03</internalNodes>
          <leafValues>
            4.0777745842933655e-01 -8.8091415166854858e-01</leafValues></_></weakClassifiers></_>
    <!-- stage 9 -->
    <_>
      <maxWeakCount>3</maxWeakCount>
      <stageThreshold>-1.1186380386352539e+00</stageThreshold>
      <weakClassifiers>
        <_>
          <internalNodes>
            0 -1 24 2.8797544073313475e-03</internalNodes>
          <leafValues>
            -8.7267905473709106e-01 3.8461539149284363e-01</leafValues></_>
        <_>
          <internalNodes>
            0 -1 17 -2.6980275288224220e-03</internalNodes>
          <leafValues>
            7.2032207250595093e-01 -6.8348020315170288e-01</leafValues></_>
        <_>
          <internalNodes>
            0 -1 9 5.4277107119560242e-03</internalNodes>
          <leafValues>
            -1. 4.3752118945121765e-01</leafValues></_></weakClassifiers></_>
    <!-- stage 10 -->
    <_>
      <maxWeakCount>3</maxWeakCount>
      <stageThreshold>-1.0565801858901978e+00</stageThreshold>
      <weakClassifiers>
        <_>
          <internalNodes>
            0 -1 6 -2.5331021752208471e-03</internalNodes>
          <leafValues>
            6.2025314569473267e-01 -8.8174808025360107e-01</leafValues></_>
        <_>
          <internalNodes>
            0 -1 10 -3.0011970549821854e-02</internalNodes>
          <leafValues>
            4.8738378286361694e-01 -8.1053024530410767e-01</leafValues></_>
        <_>
          <internalNodes>
            0 -1 19 -1.5852670185267925e-03</internalNodes>
          <leafValues>
            7.0610445737838745e-01 -6.6221588850021362e-01</leafValues></_></weakClassifiers></_></stages>
  <features>
    <_>
      <rects>
        <_>
          0 8 79 16 -1.</_>
        <_>
          0 12 79 8 2.</_></rects>
      <tilted>0</tilted></_>
    <_>
      <rects>
        <_>
          1 22 36 2 -1.</_>
        <_>
          10 22 18 2 2.</_></rects>
      <tilted>0</tilted></_>
    <_>
      <rects>
        <_>
          2 28 5 3 -1.</_>
        <_>
          2 29 5 1 3.</_></rects>
      <tilted>0</tilted></_>
    <_>
      <rects>
        <_>
          7 16 30 12 -1.</_>
        <_>
          17 20 10 4 9.</_></rects>
      <tilted>0</tilted></_>
    <_>
      <rects>
        <_>
          10 23 57 6 -1.</_>
        <_>
          10 25 57 2 3.</_></rects>
      <tilted>0</tilted></_>
    <_>
      <rects>
        <_>
          12 27 7 3 -1.</_>
        <_>
          12 28 7 1 3.</_></rects>
      <tilted>0</tilted></_>
    <_>
      <rects>
        <_>
          13 10 9 3 -1.</_>
        <_>
          13 11 9 1 3.</_></rects>
      <tilted>0</tilted></_>
    <_>
      <rects>
        <_>
          13 18 18 9 -1.</_>
        <_>
          13 21 18 3 3.</_></rects>
      <tilted>0</tilted></_>
    <_>
      <rects>
        <_>
          18 11 6 2 -1.</_>
        <_>
          18 12 6 1 2.</_></rects>
      <tilted>0</tilted></_>
    <_>
      <rects>
        <_>
          18 22 44 1 -1.</_>
        <_>
          29 22 22 1 2.</_></rects>
      <tilted>0</tilted></_>
    <_>
      <rects>
        <_>
          20 18 50 8 -1.</_>
        <_>
          20 20 50 4 2.</_></rects>
      <tilted>0</tilted></_>
    <_>
      <rects>
        <_>
          27 9 14 3 -1.</_>
        <_>
          27 10 14 1 3.</_></rects>
      <tilted>0</tilted></_>
    <_>
      <rects>
        <_>
          31 39 32 1 -1.</_>
        <_>
          39 39 16 1 2.</_></rects>
      <tilted>0</tilted></_>
    <_>
      <rects>
        <_>
          37 23 3 3 -1.</_>
        <_>
          38 24 1 3 3.</_></rects>
      <tilted>1</tilted></_>
    <_>
      <rects>
        <_>
          37 23 3 6 -1.</_>
        <_>
          38 24 1 6 3.</_></rects>
      <tilted>1</tilted></_>
    <_>
      <rects>
        <_>
          39 4 2 9 -1.</_>
        <_>
          40 4 1 9 2.</_></rects>
      <tilted>0</tilted></_>
    <_>
      <rects>
        <_>
          39 7 4 22 -1.</_>
        <_>
          39 7 2 11 2.</_>
        <_>
          41 18 2 11 2.</_></rects>
      <tilted>0</tilted></_>
    <_>
      <rects>
        <_>
          39 24 2 16 -1.</_>
        <_>
          40 24 1 16 2.</_></rects>
      <tilted>0</tilted></_>
    <_>
      <rects>
        <_>
          39 25 3 14 -1.</_>
        <_>
          40 25 1 14 3.</_></rects>
      <tilted>0</tilted></_>
    <_>
      <rects>
        <_>
          39 30 2 10 -1.</_>
        <_>
          40 30 1 10 2.</_></rects>
      <tilted>0</tilted></_>
    <_>
      <rects>
        <_>
          40 0 10 24 -1.</_>
        <_>
          32 8 10 8 3.</_></rects>
      <tilted>1</tilted></_>
    <_>
      <rects>
        <_>
          44 26 16 2 -1.</_>
        <_>
          44 26 8 1 2.</_>
        <_>
          52 27 8 1 2.</_></rects>
      <tilted>0</tilted></_>
    <_>
      <rects>
        <_>
          46 22 30 1 -1.</_>
        <_>
          56 22 10 1 3.</_></rects>
      <tilted>0</tilted></_>
    <_>
      <rects>
        <_>
          47 10 11 3 -1.</_>
        <_>
          47 11 11 1 3.</_></rects>
      <tilted>0</tilted></_>
    <_>
      <rects>
        <_>
          47 10 22 2 -1.</_>
        <_>
          47 10 11 1 2.</_>
        <_>
          58 11 11 1 2.</_></rects>
      <tilted>0</tilted></_>
    <_>
      <rects>
        <_>
          47 15 30 12 -1.</_>
        <_>
          57 19 10 4 9.</_></rects>
      <tilted>0</tilted></_>
    <_>
      <rects>
        <_>
          51 16 18 12 -1.</_>
        <_>
          51 20 18 4 3.</_></rects>
      <tilted>0</tilted></_>
    <_>
      <rects>
        <_>
          62 9 8 3 -1.</_>
        <_>
          62 10 8 1 3.</_></rects>
      <tilted>0</tilted></_>
    <_>
      <rects>
        <_>
          64 20 12 3 -1.</_>
        <_>
          70 20 6 3 2.</_></rects>
      <tilted>0</tilted></_>
    <_>
      <rects>
        <_>
          77 22 3 9 -1.</_>
        <_>
          78 23 1 9 3.</_></rects>
      <tilted>1</tilted></_></features></cascade>
</opencv_storage>
